digraph Tree {
node [shape=box, style="filled, rounded", color="black", fontname="helvetica"] ;
edge [fontname="helvetica"] ;
0 [label="feature_4837 <= 0.091\ngini = 0.43\nsamples = 1690\nvalue = [833.0, 1832.0]\nclass = TRUE", fillcolor="#93caf1"] ;
1 [label="feature_4680 <= 0.111\ngini = 0.425\nsamples = 1665\nvalue = [806.0, 1820.0]\nclass = TRUE", fillcolor="#91c8f1"] ;
0 -> 1 [labeldistance=2.5, labelangle=45, headlabel="True"] ;
2 [label="feature_5175 <= 0.12\ngini = 0.423\nsamples = 1659\nvalue = [795, 1820]\nclass = TRUE", fillcolor="#8fc8f0"] ;
1 -> 2 ;
3 [label="feature_3670 <= 0.127\ngini = 0.422\nsamples = 1654\nvalue = [788, 1818]\nclass = TRUE", fillcolor="#8fc7f0"] ;
2 -> 3 ;
4 [label="feature_6895 <= 0.082\ngini = 0.419\nsamples = 1645\nvalue = [772, 1816]\nclass = TRUE", fillcolor="#8dc7f0"] ;
3 -> 4 ;
5 [label="feature_2178 <= 0.152\ngini = 0.415\nsamples = 1632\nvalue = [753.0, 1812.0]\nclass = TRUE", fillcolor="#8bc6f0"] ;
4 -> 5 ;
6 [label="feature_4331 <= 0.085\ngini = 0.412\nsamples = 1626\nvalue = [741, 1811]\nclass = TRUE", fillcolor="#8ac5f0"] ;
5 -> 6 ;
7 [label="feature_4826 <= 0.098\ngini = 0.41\nsamples = 1618\nvalue = [733.0, 1810.0]\nclass = TRUE", fillcolor="#89c5f0"] ;
6 -> 7 ;
8 [label="feature_4046 <= 0.098\ngini = 0.405\nsamples = 1604\nvalue = [711, 1808]\nclass = TRUE", fillcolor="#87c4ef"] ;
7 -> 8 ;
9 [label="feature_3310 <= 0.092\ngini = 0.402\nsamples = 1595\nvalue = [698, 1807]\nclass = TRUE", fillcolor="#85c3ef"] ;
8 -> 9 ;
10 [label="gini = 0.401\nsamples = 1591\nvalue = [693, 1807]\nclass = TRUE", fillcolor="#85c3ef"] ;
9 -> 10 ;
11 [label="gini = 0.0\nsamples = 4\nvalue = [5, 0]\nclass = FAKE", fillcolor="#e58139"] ;
9 -> 11 ;
12 [label="feature_6728 <= 0.086\ngini = 0.133\nsamples = 9\nvalue = [13, 1]\nclass = FAKE", fillcolor="#e78b48"] ;
8 -> 12 ;
13 [label="gini = 0.142\nsamples = 8\nvalue = [12, 1]\nclass = FAKE", fillcolor="#e78c49"] ;
12 -> 13 ;
14 [label="gini = 0.0\nsamples = 1\nvalue = [1, 0]\nclass = FAKE", fillcolor="#e58139"] ;
12 -> 14 ;
15 [label="feature_1289 <= 0.144\ngini = 0.153\nsamples = 14\nvalue = [22, 2]\nclass = FAKE", fillcolor="#e78c4b"] ;
7 -> 15 ;
16 [label="feature_648 <= 0.135\ngini = 0.165\nsamples = 13\nvalue = [20, 2]\nclass = FAKE", fillcolor="#e88e4d"] ;
15 -> 16 ;
17 [label="gini = 0.18\nsamples = 12\nvalue = [18, 2]\nclass = FAKE", fillcolor="#e88f4f"] ;
16 -> 17 ;
18 [label="gini = 0.0\nsamples = 1\nvalue = [2, 0]\nclass = FAKE", fillcolor="#e58139"] ;
16 -> 18 ;
19 [label="gini = 0.0\nsamples = 1\nvalue = [2, 0]\nclass = FAKE", fillcolor="#e58139"] ;
15 -> 19 ;
20 [label="feature_7638 <= 0.12\ngini = 0.198\nsamples = 8\nvalue = [8, 1]\nclass = FAKE", fillcolor="#e89152"] ;
6 -> 20 ;
21 [label="feature_3255 <= 0.122\ngini = 0.245\nsamples = 7\nvalue = [6, 1]\nclass = FAKE", fillcolor="#e9965a"] ;
20 -> 21 ;
22 [label="feature_2444 <= 0.176\ngini = 0.278\nsamples = 6\nvalue = [5, 1]\nclass = FAKE", fillcolor="#ea9a61"] ;
21 -> 22 ;
23 [label="gini = 0.0\nsamples = 5\nvalue = [5, 0]\nclass = FAKE", fillcolor="#e58139"] ;
22 -> 23 ;
24 [label="gini = 0.0\nsamples = 1\nvalue = [0, 1]\nclass = TRUE", fillcolor="#399de5"] ;
22 -> 24 ;
25 [label="gini = 0.0\nsamples = 1\nvalue = [1, 0]\nclass = FAKE", fillcolor="#e58139"] ;
21 -> 25 ;
26 [label="gini = 0.0\nsamples = 1\nvalue = [2, 0]\nclass = FAKE", fillcolor="#e58139"] ;
20 -> 26 ;
27 [label="feature_6172 <= 0.196\ngini = 0.142\nsamples = 6\nvalue = [12, 1]\nclass = FAKE", fillcolor="#e78c49"] ;
5 -> 27 ;
28 [label="gini = 0.0\nsamples = 5\nvalue = [12, 0]\nclass = FAKE", fillcolor="#e58139"] ;
27 -> 28 ;
29 [label="gini = 0.0\nsamples = 1\nvalue = [0, 1]\nclass = TRUE", fillcolor="#399de5"] ;
27 -> 29 ;
30 [label="feature_162 <= 0.222\ngini = 0.287\nsamples = 13\nvalue = [19, 4]\nclass = FAKE", fillcolor="#ea9c63"] ;
4 -> 30 ;
31 [label="feature_7655 <= 0.157\ngini = 0.32\nsamples = 12\nvalue = [16, 4]\nclass = FAKE", fillcolor="#eca06a"] ;
30 -> 31 ;
32 [label="feature_5591 <= 0.264\ngini = 0.346\nsamples = 11\nvalue = [14, 4]\nclass = FAKE", fillcolor="#eca572"] ;
31 -> 32 ;
33 [label="feature_3636 <= 0.158\ngini = 0.36\nsamples = 10\nvalue = [13, 4]\nclass = FAKE", fillcolor="#eda876"] ;
32 -> 33 ;
34 [label="feature_2508 <= 0.094\ngini = 0.375\nsamples = 9\nvalue = [12, 4]\nclass = FAKE", fillcolor="#eeab7b"] ;
33 -> 34 ;
35 [label="gini = 0.426\nsamples = 8\nvalue = [9, 4]\nclass = FAKE", fillcolor="#f1b991"] ;
34 -> 35 ;
36 [label="gini = 0.0\nsamples = 1\nvalue = [3, 0]\nclass = FAKE", fillcolor="#e58139"] ;
34 -> 36 ;
37 [label="gini = 0.0\nsamples = 1\nvalue = [1, 0]\nclass = FAKE", fillcolor="#e58139"] ;
33 -> 37 ;
38 [label="gini = 0.0\nsamples = 1\nvalue = [1, 0]\nclass = FAKE", fillcolor="#e58139"] ;
32 -> 38 ;
39 [label="gini = 0.0\nsamples = 1\nvalue = [2, 0]\nclass = FAKE", fillcolor="#e58139"] ;
31 -> 39 ;
40 [label="gini = 0.0\nsamples = 1\nvalue = [3, 0]\nclass = FAKE", fillcolor="#e58139"] ;
30 -> 40 ;
41 [label="feature_6995 <= 0.179\ngini = 0.198\nsamples = 9\nvalue = [16, 2]\nclass = FAKE", fillcolor="#e89152"] ;
3 -> 41 ;
42 [label="feature_1328 <= 0.211\ngini = 0.231\nsamples = 8\nvalue = [13, 2]\nclass = FAKE", fillcolor="#e99457"] ;
41 -> 42 ;
43 [label="gini = 0.0\nsamples = 7\nvalue = [13, 0]\nclass = FAKE", fillcolor="#e58139"] ;
42 -> 43 ;
44 [label="gini = 0.0\nsamples = 1\nvalue = [0, 2]\nclass = TRUE", fillcolor="#399de5"] ;
42 -> 44 ;
45 [label="gini = 0.0\nsamples = 1\nvalue = [3, 0]\nclass = FAKE", fillcolor="#e58139"] ;
41 -> 45 ;
46 [label="feature_2196 <= 0.124\ngini = 0.346\nsamples = 5\nvalue = [7, 2]\nclass = FAKE", fillcolor="#eca572"] ;
2 -> 46 ;
47 [label="feature_3335 <= 0.1\ngini = 0.375\nsamples = 4\nvalue = [6, 2]\nclass = FAKE", fillcolor="#eeab7b"] ;
46 -> 47 ;
48 [label="feature_7090 <= 0.129\ngini = 0.444\nsamples = 3\nvalue = [4, 2]\nclass = FAKE", fillcolor="#f2c09c"] ;
47 -> 48 ;
49 [label="gini = 0.0\nsamples = 1\nvalue = [0, 2]\nclass = TRUE", fillcolor="#399de5"] ;
48 -> 49 ;
50 [label="gini = 0.0\nsamples = 2\nvalue = [4, 0]\nclass = FAKE", fillcolor="#e58139"] ;
48 -> 50 ;
51 [label="gini = 0.0\nsamples = 1\nvalue = [2, 0]\nclass = FAKE", fillcolor="#e58139"] ;
47 -> 51 ;
52 [label="gini = 0.0\nsamples = 1\nvalue = [1, 0]\nclass = FAKE", fillcolor="#e58139"] ;
46 -> 52 ;
53 [label="gini = 0.0\nsamples = 6\nvalue = [11, 0]\nclass = FAKE", fillcolor="#e58139"] ;
1 -> 53 ;
54 [label="feature_3701 <= 0.148\ngini = 0.426\nsamples = 25\nvalue = [27, 12]\nclass = FAKE", fillcolor="#f1b991"] ;
0 -> 54 [labeldistance=2.5, labelangle=-45, headlabel="False"] ;
55 [label="feature_5613 <= 0.22\ngini = 0.394\nsamples = 24\nvalue = [27, 10]\nclass = FAKE", fillcolor="#efb082"] ;
54 -> 55 ;
56 [label="feature_7458 <= 0.142\ngini = 0.375\nsamples = 23\nvalue = [27, 9]\nclass = FAKE", fillcolor="#eeab7b"] ;
55 -> 56 ;
57 [label="feature_1786 <= 0.234\ngini = 0.397\nsamples = 22\nvalue = [24, 9]\nclass = FAKE", fillcolor="#efb083"] ;
56 -> 57 ;
58 [label="feature_3042 <= 0.152\ngini = 0.35\nsamples = 21\nvalue = [24, 7]\nclass = FAKE", fillcolor="#eda673"] ;
57 -> 58 ;
59 [label="feature_5014 <= 0.141\ngini = 0.366\nsamples = 20\nvalue = [22, 7]\nclass = FAKE", fillcolor="#eda978"] ;
58 -> 59 ;
60 [label="feature_5165 <= 0.204\ngini = 0.337\nsamples = 19\nvalue = [22, 6]\nclass = FAKE", fillcolor="#eca36f"] ;
59 -> 60 ;
61 [label="feature_1012 <= 0.114\ngini = 0.26\nsamples = 18\nvalue = [22, 4]\nclass = FAKE", fillcolor="#ea985d"] ;
60 -> 61 ;
62 [label="feature_2726 <= 0.181\ngini = 0.278\nsamples = 17\nvalue = [20, 4]\nclass = FAKE", fillcolor="#ea9a61"] ;
61 -> 62 ;
63 [label="gini = 0.32\nsamples = 16\nvalue = [16, 4]\nclass = FAKE", fillcolor="#eca06a"] ;
62 -> 63 ;
64 [label="gini = 0.0\nsamples = 1\nvalue = [4, 0]\nclass = FAKE", fillcolor="#e58139"] ;
62 -> 64 ;
65 [label="gini = 0.0\nsamples = 1\nvalue = [2, 0]\nclass = FAKE", fillcolor="#e58139"] ;
61 -> 65 ;
66 [label="gini = 0.0\nsamples = 1\nvalue = [0, 2]\nclass = TRUE", fillcolor="#399de5"] ;
60 -> 66 ;
67 [label="gini = 0.0\nsamples = 1\nvalue = [0, 1]\nclass = TRUE", fillcolor="#399de5"] ;
59 -> 67 ;
68 [label="gini = 0.0\nsamples = 1\nvalue = [2, 0]\nclass = FAKE", fillcolor="#e58139"] ;
58 -> 68 ;
69 [label="gini = 0.0\nsamples = 1\nvalue = [0, 2]\nclass = TRUE", fillcolor="#399de5"] ;
57 -> 69 ;
70 [label="gini = 0.0\nsamples = 1\nvalue = [3, 0]\nclass = FAKE", fillcolor="#e58139"] ;
56 -> 70 ;
71 [label="gini = 0.0\nsamples = 1\nvalue = [0, 1]\nclass = TRUE", fillcolor="#399de5"] ;
55 -> 71 ;
72 [label="gini = 0.0\nsamples = 1\nvalue = [0, 2]\nclass = TRUE", fillcolor="#399de5"] ;
54 -> 72 ;
}