digraph Tree {
node [shape=box, style="filled, rounded", color="black", fontname="helvetica"] ;
edge [fontname="helvetica"] ;
0 [label="feature_7709 <= 0.096\ngini = 0.422\nsamples = 1698\nvalue = [806.0, 1859.0]\nclass = TRUE", fillcolor="#8fc7f0"] ;
1 [label="feature_1438 <= 0.103\ngini = 0.417\nsamples = 1687\nvalue = [784.0, 1859.0]\nclass = TRUE", fillcolor="#8dc6f0"] ;
0 -> 1 [labeldistance=2.5, labelangle=45, headlabel="True"] ;
2 [label="feature_2518 <= 0.137\ngini = 0.415\nsamples = 1679\nvalue = [775.0, 1859.0]\nclass = TRUE", fillcolor="#8cc6f0"] ;
1 -> 2 ;
3 [label="feature_4103 <= 0.078\ngini = 0.413\nsamples = 1671\nvalue = [764, 1855]\nclass = TRUE", fillcolor="#8bc5f0"] ;
2 -> 3 ;
4 [label="feature_3732 <= 0.094\ngini = 0.409\nsamples = 1661\nvalue = [747, 1855]\nclass = TRUE", fillcolor="#89c4ef"] ;
3 -> 4 ;
5 [label="feature_4980 <= 0.119\ngini = 0.404\nsamples = 1647\nvalue = [725.0, 1851.0]\nclass = TRUE", fillcolor="#87c3ef"] ;
4 -> 5 ;
6 [label="feature_3335 <= 0.069\ngini = 0.402\nsamples = 1642\nvalue = [717, 1851]\nclass = TRUE", fillcolor="#86c3ef"] ;
5 -> 6 ;
7 [label="feature_4046 <= 0.098\ngini = 0.379\nsamples = 1585\nvalue = [629, 1850]\nclass = TRUE", fillcolor="#7cbeee"] ;
6 -> 7 ;
8 [label="feature_2347 <= 0.214\ngini = 0.377\nsamples = 1577\nvalue = [621, 1848]\nclass = TRUE", fillcolor="#7cbeee"] ;
7 -> 8 ;
9 [label="feature_1191 <= 0.134\ngini = 0.382\nsamples = 1537\nvalue = [620.0, 1792.0]\nclass = TRUE", fillcolor="#7ebfee"] ;
8 -> 9 ;
10 [label="gini = 0.381\nsamples = 1535\nvalue = [616, 1792]\nclass = TRUE", fillcolor="#7dbfee"] ;
9 -> 10 ;
11 [label="gini = 0.0\nsamples = 2\nvalue = [4, 0]\nclass = FAKE", fillcolor="#e58139"] ;
9 -> 11 ;
12 [label="feature_3734 <= 0.179\ngini = 0.034\nsamples = 40\nvalue = [1, 56]\nclass = TRUE", fillcolor="#3d9fe5"] ;
8 -> 12 ;
13 [label="gini = 0.036\nsamples = 39\nvalue = [1, 54]\nclass = TRUE", fillcolor="#3d9fe5"] ;
12 -> 13 ;
14 [label="gini = 0.0\nsamples = 1\nvalue = [0, 2]\nclass = TRUE", fillcolor="#399de5"] ;
12 -> 14 ;
15 [label="feature_3733 <= 0.169\ngini = 0.32\nsamples = 8\nvalue = [8, 2]\nclass = FAKE", fillcolor="#eca06a"] ;
7 -> 15 ;
16 [label="gini = 0.0\nsamples = 7\nvalue = [8, 0]\nclass = FAKE", fillcolor="#e58139"] ;
15 -> 16 ;
17 [label="gini = 0.0\nsamples = 1\nvalue = [0, 2]\nclass = TRUE", fillcolor="#399de5"] ;
15 -> 17 ;
18 [label="feature_6167 <= 0.08\ngini = 0.022\nsamples = 57\nvalue = [88, 1]\nclass = FAKE", fillcolor="#e5823b"] ;
6 -> 18 ;
19 [label="feature_4683 <= 0.082\ngini = 0.023\nsamples = 56\nvalue = [86, 1]\nclass = FAKE", fillcolor="#e5823b"] ;
18 -> 19 ;
20 [label="feature_895 <= 0.13\ngini = 0.024\nsamples = 53\nvalue = [82, 1]\nclass = FAKE", fillcolor="#e5833b"] ;
19 -> 20 ;
21 [label="gini = 0.024\nsamples = 51\nvalue = [80, 1]\nclass = FAKE", fillcolor="#e5833b"] ;
20 -> 21 ;
22 [label="gini = 0.0\nsamples = 2\nvalue = [2, 0]\nclass = FAKE", fillcolor="#e58139"] ;
20 -> 22 ;
23 [label="gini = 0.0\nsamples = 3\nvalue = [4, 0]\nclass = FAKE", fillcolor="#e58139"] ;
19 -> 23 ;
24 [label="gini = 0.0\nsamples = 1\nvalue = [2, 0]\nclass = FAKE", fillcolor="#e58139"] ;
18 -> 24 ;
25 [label="gini = 0.0\nsamples = 5\nvalue = [8, 0]\nclass = FAKE", fillcolor="#e58139"] ;
5 -> 25 ;
26 [label="feature_5251 <= 0.12\ngini = 0.26\nsamples = 14\nvalue = [22, 4]\nclass = FAKE", fillcolor="#ea985d"] ;
4 -> 26 ;
27 [label="feature_770 <= 0.172\ngini = 0.153\nsamples = 13\nvalue = [22, 2]\nclass = FAKE", fillcolor="#e78c4b"] ;
26 -> 27 ;
28 [label="feature_2423 <= 0.138\ngini = 0.18\nsamples = 12\nvalue = [18, 2]\nclass = FAKE", fillcolor="#e88f4f"] ;
27 -> 28 ;
29 [label="feature_3065 <= 0.157\ngini = 0.208\nsamples = 11\nvalue = [15, 2]\nclass = FAKE", fillcolor="#e89253"] ;
28 -> 29 ;
30 [label="feature_7658 <= 0.122\ngini = 0.219\nsamples = 10\nvalue = [14, 2]\nclass = FAKE", fillcolor="#e99355"] ;
29 -> 30 ;
31 [label="gini = 0.245\nsamples = 9\nvalue = [12, 2]\nclass = FAKE", fillcolor="#e9965a"] ;
30 -> 31 ;
32 [label="gini = 0.0\nsamples = 1\nvalue = [2, 0]\nclass = FAKE", fillcolor="#e58139"] ;
30 -> 32 ;
33 [label="gini = 0.0\nsamples = 1\nvalue = [1, 0]\nclass = FAKE", fillcolor="#e58139"] ;
29 -> 33 ;
34 [label="gini = 0.0\nsamples = 1\nvalue = [3, 0]\nclass = FAKE", fillcolor="#e58139"] ;
28 -> 34 ;
35 [label="gini = 0.0\nsamples = 1\nvalue = [4, 0]\nclass = FAKE", fillcolor="#e58139"] ;
27 -> 35 ;
36 [label="gini = 0.0\nsamples = 1\nvalue = [0, 2]\nclass = TRUE", fillcolor="#399de5"] ;
26 -> 36 ;
37 [label="gini = 0.0\nsamples = 10\nvalue = [17, 0]\nclass = FAKE", fillcolor="#e58139"] ;
3 -> 37 ;
38 [label="feature_1084 <= 0.136\ngini = 0.391\nsamples = 8\nvalue = [11, 4]\nclass = FAKE", fillcolor="#eeaf81"] ;
2 -> 38 ;
39 [label="feature_4604 <= 0.16\ngini = 0.463\nsamples = 7\nvalue = [7, 4]\nclass = FAKE", fillcolor="#f4c9aa"] ;
38 -> 39 ;
40 [label="feature_4479 <= 0.172\ngini = 0.346\nsamples = 6\nvalue = [7, 2]\nclass = FAKE", fillcolor="#eca572"] ;
39 -> 40 ;
41 [label="feature_6286 <= 0.123\ngini = 0.375\nsamples = 5\nvalue = [6, 2]\nclass = FAKE", fillcolor="#eeab7b"] ;
40 -> 41 ;
42 [label="feature_4956 <= 0.186\ngini = 0.408\nsamples = 4\nvalue = [5, 2]\nclass = FAKE", fillcolor="#efb388"] ;
41 -> 42 ;
43 [label="feature_7126 <= 0.063\ngini = 0.5\nsamples = 3\nvalue = [2, 2]\nclass = FAKE", fillcolor="#ffffff"] ;
42 -> 43 ;
44 [label="gini = 0.0\nsamples = 2\nvalue = [0, 2]\nclass = TRUE", fillcolor="#399de5"] ;
43 -> 44 ;
45 [label="gini = 0.0\nsamples = 1\nvalue = [2, 0]\nclass = FAKE", fillcolor="#e58139"] ;
43 -> 45 ;
46 [label="gini = 0.0\nsamples = 1\nvalue = [3, 0]\nclass = FAKE", fillcolor="#e58139"] ;
42 -> 46 ;
47 [label="gini = 0.0\nsamples = 1\nvalue = [1, 0]\nclass = FAKE", fillcolor="#e58139"] ;
41 -> 47 ;
48 [label="gini = 0.0\nsamples = 1\nvalue = [1, 0]\nclass = FAKE", fillcolor="#e58139"] ;
40 -> 48 ;
49 [label="gini = 0.0\nsamples = 1\nvalue = [0, 2]\nclass = TRUE", fillcolor="#399de5"] ;
39 -> 49 ;
50 [label="gini = 0.0\nsamples = 1\nvalue = [4, 0]\nclass = FAKE", fillcolor="#e58139"] ;
38 -> 50 ;
51 [label="gini = 0.0\nsamples = 8\nvalue = [9, 0]\nclass = FAKE", fillcolor="#e58139"] ;
1 -> 51 ;
52 [label="gini = 0.0\nsamples = 11\nvalue = [22, 0]\nclass = FAKE", fillcolor="#e58139"] ;
0 -> 52 [labeldistance=2.5, labelangle=-45, headlabel="False"] ;
}