digraph Tree {
node [shape=box, style="filled, rounded", color="black", fontname="helvetica"] ;
edge [fontname="helvetica"] ;
0 [label="feature_363 <= 0.104\ngini = 0.429\nsamples = 1684\nvalue = [830, 1835]\nclass = TRUE", fillcolor="#93c9f1"] ;
1 [label="feature_1640 <= 0.077\ngini = 0.426\nsamples = 1674\nvalue = [815, 1835]\nclass = TRUE", fillcolor="#91c9f1"] ;
0 -> 1 [labeldistance=2.5, labelangle=45, headlabel="True"] ;
2 [label="feature_2331 <= 0.254\ngini = 0.421\nsamples = 1659\nvalue = [789, 1834]\nclass = TRUE", fillcolor="#8ec7f0"] ;
1 -> 2 ;
3 [label="feature_3670 <= 0.118\ngini = 0.423\nsamples = 1643\nvalue = [789, 1806]\nclass = TRUE", fillcolor="#90c8f0"] ;
2 -> 3 ;
4 [label="feature_4742 <= 0.107\ngini = 0.421\nsamples = 1635\nvalue = [779, 1805]\nclass = TRUE", fillcolor="#8ec7f0"] ;
3 -> 4 ;
5 [label="feature_6083 <= 0.1\ngini = 0.42\nsamples = 1632\nvalue = [773, 1805]\nclass = TRUE", fillcolor="#8ec7f0"] ;
4 -> 5 ;
6 [label="feature_6286 <= 0.079\ngini = 0.417\nsamples = 1621\nvalue = [759, 1801]\nclass = TRUE", fillcolor="#8cc6f0"] ;
5 -> 6 ;
7 [label="feature_938 <= 0.118\ngini = 0.412\nsamples = 1595\nvalue = [732.0, 1788.0]\nclass = TRUE", fillcolor="#8ac5f0"] ;
6 -> 7 ;
8 [label="feature_7658 <= 0.077\ngini = 0.41\nsamples = 1590\nvalue = [724, 1788]\nclass = TRUE", fillcolor="#89c5f0"] ;
7 -> 8 ;
9 [label="feature_7566 <= 0.211\ngini = 0.406\nsamples = 1580\nvalue = [708, 1788]\nclass = TRUE", fillcolor="#87c4ef"] ;
8 -> 9 ;
10 [label="gini = 0.415\nsamples = 1533\nvalue = [708, 1705]\nclass = TRUE", fillcolor="#8bc6f0"] ;
9 -> 10 ;
11 [label="gini = 0.0\nsamples = 47\nvalue = [0, 83]\nclass = TRUE", fillcolor="#399de5"] ;
9 -> 11 ;
12 [label="gini = 0.0\nsamples = 10\nvalue = [16, 0]\nclass = FAKE", fillcolor="#e58139"] ;
8 -> 12 ;
13 [label="gini = 0.0\nsamples = 5\nvalue = [8, 0]\nclass = FAKE", fillcolor="#e58139"] ;
7 -> 13 ;
14 [label="feature_4680 <= 0.115\ngini = 0.439\nsamples = 26\nvalue = [27, 13]\nclass = FAKE", fillcolor="#f2be98"] ;
6 -> 14 ;
15 [label="feature_2274 <= 0.134\ngini = 0.461\nsamples = 24\nvalue = [23, 13]\nclass = FAKE", fillcolor="#f4c8a9"] ;
14 -> 15 ;
16 [label="feature_6569 <= 0.137\ngini = 0.467\nsamples = 23\nvalue = [22, 13]\nclass = FAKE", fillcolor="#f4cbae"] ;
15 -> 16 ;
17 [label="gini = 0.457\nsamples = 22\nvalue = [22, 12]\nclass = FAKE", fillcolor="#f3c6a5"] ;
16 -> 17 ;
18 [label="gini = 0.0\nsamples = 1\nvalue = [0, 1]\nclass = TRUE", fillcolor="#399de5"] ;
16 -> 18 ;
19 [label="gini = 0.0\nsamples = 1\nvalue = [1, 0]\nclass = FAKE", fillcolor="#e58139"] ;
15 -> 19 ;
20 [label="gini = 0.0\nsamples = 2\nvalue = [4, 0]\nclass = FAKE", fillcolor="#e58139"] ;
14 -> 20 ;
21 [label="feature_3719 <= 0.122\ngini = 0.346\nsamples = 11\nvalue = [14, 4]\nclass = FAKE", fillcolor="#eca572"] ;
5 -> 21 ;
22 [label="feature_6314 <= 0.154\ngini = 0.291\nsamples = 10\nvalue = [14, 3]\nclass = FAKE", fillcolor="#eb9c63"] ;
21 -> 22 ;
23 [label="gini = 0.0\nsamples = 9\nvalue = [14, 0]\nclass = FAKE", fillcolor="#e58139"] ;
22 -> 23 ;
24 [label="gini = 0.0\nsamples = 1\nvalue = [0, 3]\nclass = TRUE", fillcolor="#399de5"] ;
22 -> 24 ;
25 [label="gini = 0.0\nsamples = 1\nvalue = [0, 1]\nclass = TRUE", fillcolor="#399de5"] ;
21 -> 25 ;
26 [label="gini = 0.0\nsamples = 3\nvalue = [6, 0]\nclass = FAKE", fillcolor="#e58139"] ;
4 -> 26 ;
27 [label="feature_5561 <= 0.151\ngini = 0.165\nsamples = 8\nvalue = [10, 1]\nclass = FAKE", fillcolor="#e88e4d"] ;
3 -> 27 ;
28 [label="feature_5839 <= 0.154\ngini = 0.198\nsamples = 7\nvalue = [8, 1]\nclass = FAKE", fillcolor="#e89152"] ;
27 -> 28 ;
29 [label="gini = 0.0\nsamples = 6\nvalue = [8, 0]\nclass = FAKE", fillcolor="#e58139"] ;
28 -> 29 ;
30 [label="gini = 0.0\nsamples = 1\nvalue = [0, 1]\nclass = TRUE", fillcolor="#399de5"] ;
28 -> 30 ;
31 [label="gini = 0.0\nsamples = 1\nvalue = [2, 0]\nclass = FAKE", fillcolor="#e58139"] ;
27 -> 31 ;
32 [label="gini = 0.0\nsamples = 16\nvalue = [0, 28]\nclass = TRUE", fillcolor="#399de5"] ;
2 -> 32 ;
33 [label="feature_7388 <= 0.043\ngini = 0.071\nsamples = 15\nvalue = [26, 1]\nclass = FAKE", fillcolor="#e68641"] ;
1 -> 33 ;
34 [label="feature_1557 <= 0.116\ngini = 0.142\nsamples = 7\nvalue = [12, 1]\nclass = FAKE", fillcolor="#e78c49"] ;
33 -> 34 ;
35 [label="feature_6278 <= 0.084\ngini = 0.165\nsamples = 6\nvalue = [10, 1]\nclass = FAKE", fillcolor="#e88e4d"] ;
34 -> 35 ;
36 [label="feature_6893 <= 0.177\ngini = 0.32\nsamples = 4\nvalue = [4, 1]\nclass = FAKE", fillcolor="#eca06a"] ;
35 -> 36 ;
37 [label="feature_3890 <= 0.164\ngini = 0.375\nsamples = 3\nvalue = [3, 1]\nclass = FAKE", fillcolor="#eeab7b"] ;
36 -> 37 ;
38 [label="feature_3999 <= 0.193\ngini = 0.444\nsamples = 2\nvalue = [2, 1]\nclass = FAKE", fillcolor="#f2c09c"] ;
37 -> 38 ;
39 [label="gini = 0.0\nsamples = 1\nvalue = [0, 1]\nclass = TRUE", fillcolor="#399de5"] ;
38 -> 39 ;
40 [label="gini = 0.0\nsamples = 1\nvalue = [2, 0]\nclass = FAKE", fillcolor="#e58139"] ;
38 -> 40 ;
41 [label="gini = 0.0\nsamples = 1\nvalue = [1, 0]\nclass = FAKE", fillcolor="#e58139"] ;
37 -> 41 ;
42 [label="gini = 0.0\nsamples = 1\nvalue = [1, 0]\nclass = FAKE", fillcolor="#e58139"] ;
36 -> 42 ;
43 [label="gini = 0.0\nsamples = 2\nvalue = [6, 0]\nclass = FAKE", fillcolor="#e58139"] ;
35 -> 43 ;
44 [label="gini = 0.0\nsamples = 1\nvalue = [2, 0]\nclass = FAKE", fillcolor="#e58139"] ;
34 -> 44 ;
45 [label="gini = 0.0\nsamples = 8\nvalue = [14, 0]\nclass = FAKE", fillcolor="#e58139"] ;
33 -> 45 ;
46 [label="gini = 0.0\nsamples = 10\nvalue = [15, 0]\nclass = FAKE", fillcolor="#e58139"] ;
0 -> 46 [labeldistance=2.5, labelangle=-45, headlabel="False"] ;
}