digraph Tree {
node [shape=box, style="filled, rounded", color="black", fontname="helvetica"] ;
edge [fontname="helvetica"] ;
0 [label="feature_6930 <= 0.114\ngini = 0.423\nsamples = 1697\nvalue = [808, 1857]\nclass = TRUE", fillcolor="#8fc8f0"] ;
1 [label="feature_1852 <= 0.209\ngini = 0.42\nsamples = 1690\nvalue = [796.0, 1857.0]\nclass = TRUE", fillcolor="#8ec7f0"] ;
0 -> 1 [labeldistance=2.5, labelangle=45, headlabel="True"] ;
2 [label="feature_599 <= 0.104\ngini = 0.425\nsamples = 1652\nvalue = [794, 1797]\nclass = TRUE", fillcolor="#90c8f0"] ;
1 -> 2 ;
3 [label="feature_6083 <= 0.1\ngini = 0.423\nsamples = 1646\nvalue = [786.0, 1796.0]\nclass = TRUE", fillcolor="#90c8f0"] ;
2 -> 3 ;
4 [label="feature_3910 <= 0.089\ngini = 0.42\nsamples = 1633\nvalue = [770, 1792]\nclass = TRUE", fillcolor="#8ec7f0"] ;
3 -> 4 ;
5 [label="feature_0 <= 0.098\ngini = 0.418\nsamples = 1624\nvalue = [758, 1791]\nclass = TRUE", fillcolor="#8dc6f0"] ;
4 -> 5 ;
6 [label="feature_410 <= 0.134\ngini = 0.415\nsamples = 1611\nvalue = [744, 1787]\nclass = TRUE", fillcolor="#8bc6f0"] ;
5 -> 6 ;
7 [label="feature_3335 <= 0.065\ngini = 0.413\nsamples = 1607\nvalue = [735, 1787]\nclass = TRUE", fillcolor="#8ac5f0"] ;
6 -> 7 ;
8 [label="feature_4221 <= 0.123\ngini = 0.383\nsamples = 1537\nvalue = [621, 1787]\nclass = TRUE", fillcolor="#7ebfee"] ;
7 -> 8 ;
9 [label="feature_7709 <= 0.104\ngini = 0.381\nsamples = 1535\nvalue = [616, 1787]\nclass = TRUE", fillcolor="#7dbfee"] ;
8 -> 9 ;
10 [label="gini = 0.378\nsamples = 1528\nvalue = [606.0, 1787.0]\nclass = TRUE", fillcolor="#7cbeee"] ;
9 -> 10 ;
11 [label="gini = 0.0\nsamples = 7\nvalue = [10, 0]\nclass = FAKE", fillcolor="#e58139"] ;
9 -> 11 ;
12 [label="gini = 0.0\nsamples = 2\nvalue = [5, 0]\nclass = FAKE", fillcolor="#e58139"] ;
8 -> 12 ;
13 [label="gini = 0.0\nsamples = 70\nvalue = [114, 0]\nclass = FAKE", fillcolor="#e58139"] ;
7 -> 13 ;
14 [label="gini = 0.0\nsamples = 4\nvalue = [9, 0]\nclass = FAKE", fillcolor="#e58139"] ;
6 -> 14 ;
15 [label="feature_888 <= 0.169\ngini = 0.346\nsamples = 13\nvalue = [14, 4]\nclass = FAKE", fillcolor="#eca572"] ;
5 -> 15 ;
16 [label="feature_6333 <= 0.156\ngini = 0.375\nsamples = 12\nvalue = [12, 4]\nclass = FAKE", fillcolor="#eeab7b"] ;
15 -> 16 ;
17 [label="feature_5659 <= 0.087\ngini = 0.391\nsamples = 11\nvalue = [11, 4]\nclass = FAKE", fillcolor="#eeaf81"] ;
16 -> 17 ;
18 [label="feature_4431 <= 0.134\ngini = 0.426\nsamples = 9\nvalue = [9, 4]\nclass = FAKE", fillcolor="#f1b991"] ;
17 -> 18 ;
19 [label="gini = 0.0\nsamples = 8\nvalue = [9, 0]\nclass = FAKE", fillcolor="#e58139"] ;
18 -> 19 ;
20 [label="gini = 0.0\nsamples = 1\nvalue = [0, 4]\nclass = TRUE", fillcolor="#399de5"] ;
18 -> 20 ;
21 [label="gini = 0.0\nsamples = 2\nvalue = [2, 0]\nclass = FAKE", fillcolor="#e58139"] ;
17 -> 21 ;
22 [label="gini = 0.0\nsamples = 1\nvalue = [1, 0]\nclass = FAKE", fillcolor="#e58139"] ;
16 -> 22 ;
23 [label="gini = 0.0\nsamples = 1\nvalue = [2, 0]\nclass = FAKE", fillcolor="#e58139"] ;
15 -> 23 ;
24 [label="feature_3548 <= 0.158\ngini = 0.142\nsamples = 9\nvalue = [12, 1]\nclass = FAKE", fillcolor="#e78c49"] ;
4 -> 24 ;
25 [label="feature_6992 <= 0.152\ngini = 0.153\nsamples = 8\nvalue = [11, 1]\nclass = FAKE", fillcolor="#e78c4b"] ;
24 -> 25 ;
26 [label="feature_422 <= 0.114\ngini = 0.245\nsamples = 6\nvalue = [6, 1]\nclass = FAKE", fillcolor="#e9965a"] ;
25 -> 26 ;
27 [label="feature_7511 <= 0.129\ngini = 0.278\nsamples = 5\nvalue = [5, 1]\nclass = FAKE", fillcolor="#ea9a61"] ;
26 -> 27 ;
28 [label="feature_60 <= 0.146\ngini = 0.32\nsamples = 4\nvalue = [4, 1]\nclass = FAKE", fillcolor="#eca06a"] ;
27 -> 28 ;
29 [label="gini = 0.375\nsamples = 3\nvalue = [3, 1]\nclass = FAKE", fillcolor="#eeab7b"] ;
28 -> 29 ;
30 [label="gini = 0.0\nsamples = 1\nvalue = [1, 0]\nclass = FAKE", fillcolor="#e58139"] ;
28 -> 30 ;
31 [label="gini = 0.0\nsamples = 1\nvalue = [1, 0]\nclass = FAKE", fillcolor="#e58139"] ;
27 -> 31 ;
32 [label="gini = 0.0\nsamples = 1\nvalue = [1, 0]\nclass = FAKE", fillcolor="#e58139"] ;
26 -> 32 ;
33 [label="gini = 0.0\nsamples = 2\nvalue = [5, 0]\nclass = FAKE", fillcolor="#e58139"] ;
25 -> 33 ;
34 [label="gini = 0.0\nsamples = 1\nvalue = [1, 0]\nclass = FAKE", fillcolor="#e58139"] ;
24 -> 34 ;
35 [label="feature_2325 <= 0.207\ngini = 0.32\nsamples = 13\nvalue = [16, 4]\nclass = FAKE", fillcolor="#eca06a"] ;
3 -> 35 ;
36 [label="feature_659 <= 0.091\ngini = 0.266\nsamples = 12\nvalue = [16, 3]\nclass = FAKE", fillcolor="#ea995e"] ;
35 -> 36 ;
37 [label="feature_1484 <= 0.144\ngini = 0.305\nsamples = 11\nvalue = [13, 3]\nclass = FAKE", fillcolor="#eb9e67"] ;
36 -> 37 ;
38 [label="feature_5640 <= 0.147\ngini = 0.337\nsamples = 10\nvalue = [11, 3]\nclass = FAKE", fillcolor="#eca36f"] ;
37 -> 38 ;
39 [label="feature_2160 <= 0.312\ngini = 0.355\nsamples = 9\nvalue = [10, 3]\nclass = FAKE", fillcolor="#eda774"] ;
38 -> 39 ;
40 [label="feature_3732 <= 0.094\ngini = 0.375\nsamples = 8\nvalue = [9, 3]\nclass = FAKE", fillcolor="#eeab7b"] ;
39 -> 40 ;
41 [label="gini = 0.397\nsamples = 7\nvalue = [8, 3]\nclass = FAKE", fillcolor="#efb083"] ;
40 -> 41 ;
42 [label="gini = 0.0\nsamples = 1\nvalue = [1, 0]\nclass = FAKE", fillcolor="#e58139"] ;
40 -> 42 ;
43 [label="gini = 0.0\nsamples = 1\nvalue = [1, 0]\nclass = FAKE", fillcolor="#e58139"] ;
39 -> 43 ;
44 [label="gini = 0.0\nsamples = 1\nvalue = [1, 0]\nclass = FAKE", fillcolor="#e58139"] ;
38 -> 44 ;
45 [label="gini = 0.0\nsamples = 1\nvalue = [2, 0]\nclass = FAKE", fillcolor="#e58139"] ;
37 -> 45 ;
46 [label="gini = 0.0\nsamples = 1\nvalue = [3, 0]\nclass = FAKE", fillcolor="#e58139"] ;
36 -> 46 ;
47 [label="gini = 0.0\nsamples = 1\nvalue = [0, 1]\nclass = TRUE", fillcolor="#399de5"] ;
35 -> 47 ;
48 [label="feature_6550 <= 0.143\ngini = 0.198\nsamples = 6\nvalue = [8, 1]\nclass = FAKE", fillcolor="#e89152"] ;
2 -> 48 ;
49 [label="gini = 0.0\nsamples = 5\nvalue = [8, 0]\nclass = FAKE", fillcolor="#e58139"] ;
48 -> 49 ;
50 [label="gini = 0.0\nsamples = 1\nvalue = [0, 1]\nclass = TRUE", fillcolor="#399de5"] ;
48 -> 50 ;
51 [label="feature_4524 <= 0.271\ngini = 0.062\nsamples = 38\nvalue = [2, 60]\nclass = TRUE", fillcolor="#40a0e6"] ;
1 -> 51 ;
52 [label="feature_5740 <= 0.248\ngini = 0.067\nsamples = 37\nvalue = [2, 56]\nclass = TRUE", fillcolor="#40a0e6"] ;
51 -> 52 ;
53 [label="feature_6141 <= 0.153\ngini = 0.071\nsamples = 35\nvalue = [2, 52]\nclass = TRUE", fillcolor="#41a1e6"] ;
52 -> 53 ;
54 [label="feature_1392 <= 0.122\ngini = 0.074\nsamples = 34\nvalue = [2, 50]\nclass = TRUE", fillcolor="#41a1e6"] ;
53 -> 54 ;
55 [label="feature_5316 <= 0.124\ngini = 0.075\nsamples = 33\nvalue = [2, 49]\nclass = TRUE", fillcolor="#41a1e6"] ;
54 -> 55 ;
56 [label="feature_5480 <= 0.238\ngini = 0.078\nsamples = 32\nvalue = [2.0, 47.0]\nclass = TRUE", fillcolor="#41a1e6"] ;
55 -> 56 ;
57 [label="gini = 0.0\nsamples = 31\nvalue = [0, 47]\nclass = TRUE", fillcolor="#399de5"] ;
56 -> 57 ;
58 [label="gini = 0.0\nsamples = 1\nvalue = [2, 0]\nclass = FAKE", fillcolor="#e58139"] ;
56 -> 58 ;
59 [label="gini = 0.0\nsamples = 1\nvalue = [0, 2]\nclass = TRUE", fillcolor="#399de5"] ;
55 -> 59 ;
60 [label="gini = 0.0\nsamples = 1\nvalue = [0, 1]\nclass = TRUE", fillcolor="#399de5"] ;
54 -> 60 ;
61 [label="gini = 0.0\nsamples = 1\nvalue = [0, 2]\nclass = TRUE", fillcolor="#399de5"] ;
53 -> 61 ;
62 [label="gini = 0.0\nsamples = 2\nvalue = [0, 4]\nclass = TRUE", fillcolor="#399de5"] ;
52 -> 62 ;
63 [label="gini = 0.0\nsamples = 1\nvalue = [0, 4]\nclass = TRUE", fillcolor="#399de5"] ;
51 -> 63 ;
64 [label="gini = 0.0\nsamples = 7\nvalue = [12, 0]\nclass = FAKE", fillcolor="#e58139"] ;
0 -> 64 [labeldistance=2.5, labelangle=-45, headlabel="False"] ;
}